digraph Tree {
node [shape=box, style="filled", color="black", fontname="helvetica"] ;
edge [fontname="helvetica"] ;
0 [label="x1 <= 0.192\ngini = 0.667\nsamples = 100\nvalue = [34, 33, 33]\nclass = y1", fillcolor="#fffdfc"] ;
1 [label="x2 <= -0.587\ngini = 0.349\nsamples = 40\nvalue = [31, 0, 9]\nclass = y1", fillcolor="#eda672"] ;
0 -> 1 [labeldistance=2.5, labelangle=45, headlabel="True"] ;
2 [label="gini = 0.32\nsamples = 10\nvalue = [2, 0, 8]\nclass = y3", fillcolor="#a06aec"] ;
1 -> 2 ;
3 [label="x2 <= 0.546\ngini = 0.064\nsamples = 30\nvalue = [29, 0, 1]\nclass = y1", fillcolor="#e68540"] ;
1 -> 3 ;
4 [label="gini = 0.278\nsamples = 6\nvalue = [5, 0, 1]\nclass = y1", fillcolor="#ea9a61"] ;
3 -> 4 ;
5 [label="gini = 0.0\nsamples = 24\nvalue = [24, 0, 0]\nclass = y1", fillcolor="#e58139"] ;
3 -> 5 ;
6 [label="x2 <= 0.045\ngini = 0.535\nsamples = 60\nvalue = [3, 33, 24]\nclass = y2", fillcolor="#cef8e0"] ;
0 -> 6 [labeldistance=2.5, labelangle=-45, headlabel="False"] ;
7 [label="x2 <= -1.372\ngini = 0.456\nsamples = 31\nvalue = [1, 9, 21]\nclass = y3", fillcolor="#ba93f1"] ;
6 -> 7 ;
8 [label="gini = 0.0\nsamples = 10\nvalue = [0, 0, 10]\nclass = y3", fillcolor="#8139e5"] ;
7 -> 8 ;
9 [label="x1 <= 1.219\ngini = 0.54\nsamples = 21\nvalue = [1, 9, 11]\nclass = y3", fillcolor="#eadefb"] ;
7 -> 9 ;
10 [label="x1 <= 0.911\ngini = 0.542\nsamples = 12\nvalue = [1, 7, 4]\nclass = y2", fillcolor="#b5f5d0"] ;
9 -> 10 ;
11 [label="gini = 0.5\nsamples = 6\nvalue = [0, 3, 3]\nclass = y2", fillcolor="#ffffff"] ;
10 -> 11 ;
12 [label="gini = 0.5\nsamples = 6\nvalue = [1, 4, 1]\nclass = y2", fillcolor="#88efb3"] ;
10 -> 12 ;
13 [label="gini = 0.346\nsamples = 9\nvalue = [0, 2, 7]\nclass = y3", fillcolor="#a572ec"] ;
9 -> 13 ;
14 [label="x2 <= 1.029\ngini = 0.3\nsamples = 29\nvalue = [2, 24, 3]\nclass = y2", fillcolor="#5fea99"] ;
6 -> 14 ;
15 [label="x1 <= 1.112\ngini = 0.421\nsamples = 19\nvalue = [2, 14, 3]\nclass = y2", fillcolor="#77eda8"] ;
14 -> 15 ;
16 [label="x1 <= 0.861\ngini = 0.272\nsamples = 13\nvalue = [1, 11, 1]\nclass = y2", fillcolor="#5ae996"] ;
15 -> 16 ;
17 [label="gini = 0.5\nsamples = 6\nvalue = [1, 4, 1]\nclass = y2", fillcolor="#88efb3"] ;
16 -> 17 ;
18 [label="gini = 0.0\nsamples = 7\nvalue = [0, 7, 0]\nclass = y2", fillcolor="#39e581"] ;
16 -> 18 ;
19 [label="gini = 0.611\nsamples = 6\nvalue = [1, 3, 2]\nclass = y2", fillcolor="#cef8e0"] ;
15 -> 19 ;
20 [label="gini = 0.0\nsamples = 10\nvalue = [0, 10, 0]\nclass = y2", fillcolor="#39e581"] ;
14 -> 20 ;
}